FANN_FLO_2.1
num_layers=5
learning_rate=0.700000
connection_rate=1.000000
network_type=0
learning_momentum=0.000000
training_algorithm=2
train_error_function=1
train_stop_function=0
cascade_output_change_fraction=0.010000
quickprop_decay=-0.000100
quickprop_mu=1.750000
rprop_increase_factor=1.200000
rprop_decrease_factor=0.500000
rprop_delta_min=0.000000
rprop_delta_max=50.000000
rprop_delta_zero=0.100000
cascade_output_stagnation_epochs=12
cascade_candidate_change_fraction=0.010000
cascade_candidate_stagnation_epochs=12
cascade_max_out_epochs=150
cascade_min_out_epochs=50
cascade_max_cand_epochs=150
cascade_min_cand_epochs=50
cascade_num_candidate_groups=2
bit_fail_limit=3.49999994039535522461e-01
cascade_candidate_limit=1.00000000000000000000e+03
cascade_weight_multiplier=4.00000005960464477539e-01
cascade_activation_functions_count=10
cascade_activation_functions=3 5 7 8 10 11 14 15 16 17 
cascade_activation_steepnesses_count=4
cascade_activation_steepnesses=2.50000000000000000000e-01 5.00000000000000000000e-01 7.50000000000000000000e-01 1.00000000000000000000e+00 
layer_sizes=5 9 9 9 4 
scale_included=0
neurons (num_inputs, activation_function, activation_steepness)=(0, 0, 0.00000000000000000000e+00) (0, 0, 0.00000000000000000000e+00) (0, 0, 0.00000000000000000000e+00) (0, 0, 0.00000000000000000000e+00) (0, 0, 0.00000000000000000000e+00) (5, 4, 5.00000000000000000000e-01) (5, 4, 5.00000000000000000000e-01) (5, 4, 5.00000000000000000000e-01) (5, 4, 5.00000000000000000000e-01) (5, 4, 5.00000000000000000000e-01) (5, 4, 5.00000000000000000000e-01) (5, 4, 5.00000000000000000000e-01) (5, 4, 5.00000000000000000000e-01) (0, 0, 0.00000000000000000000e+00) (9, 4, 5.00000000000000000000e-01) (9, 4, 5.00000000000000000000e-01) (9, 4, 5.00000000000000000000e-01) (9, 4, 5.00000000000000000000e-01) (9, 4, 5.00000000000000000000e-01) (9, 4, 5.00000000000000000000e-01) (9, 4, 5.00000000000000000000e-01) (9, 4, 5.00000000000000000000e-01) (0, 0, 0.00000000000000000000e+00) (9, 4, 5.00000000000000000000e-01) (9, 4, 5.00000000000000000000e-01) (9, 4, 5.00000000000000000000e-01) (9, 4, 5.00000000000000000000e-01) (9, 4, 5.00000000000000000000e-01) (9, 4, 5.00000000000000000000e-01) (9, 4, 5.00000000000000000000e-01) (9, 4, 5.00000000000000000000e-01) (0, 0, 0.00000000000000000000e+00) (9, 4, 5.00000000000000000000e-01) (9, 4, 5.00000000000000000000e-01) (9, 4, 5.00000000000000000000e-01) (0, 0, 0.00000000000000000000e+00) 
connections (connected_to_neuron, weight)=(0, 3.65005278587341308594e+00) (1, -1.12379846572875976562e+01) (2, 7.24046401977539062500e+01) (3, 3.19733333587646484375e+01) (4, 1.67527794837951660156e+00) (0, 1.36371505260467529297e+00) (1, -1.10041952133178710938e+01) (2, 7.15961380004882812500e+01) (3, 1.65093669891357421875e+01) (4, 1.29244565963745117188e+00) (0, 1.59985542297363281250e-01) (1, -2.51126232147216796875e+01) (2, 7.22056350708007812500e+01) (3, 4.81134033203125000000e+00) (4, 1.81984171271324157715e-01) (0, 7.31451094150543212891e-01) (1, -6.60198736190795898438e+00) (2, 3.52517664432525634766e-01) (3, 5.28525590896606445312e-01) (4, 7.10003912448883056641e-01) (0, 3.07216715812683105469e+00) (1, -1.12626218795776367188e+01) (2, 1.44844853878021240234e+00) (3, -1.37767985463142395020e-01) (4, 1.59459102153778076172e+00) (0, 5.24963665008544921875e+00) (1, -1.14884700775146484375e+01) (2, 7.22685775756835937500e+01) (3, 2.67223453521728515625e+01) (4, 1.11101472377777099609e+00) (0, 4.47542667388916015625e+00) (1, -1.16727790832519531250e+01) (2, 7.22518997192382812500e+01) (3, 1.86991748809814453125e+01) (4, 1.92369771003723144531e+00) (0, 1.58269703388214111328e+00) (1, -1.32809677124023437500e+01) (2, -4.77909231185913085938e+00) (3, 2.09992599487304687500e+00) (4, 4.39933538436889648438e-01) (5, 1.65947735309600830078e+00) (6, 6.66250085830688476562e+00) (7, 6.53371858596801757812e+00) (8, -1.16481292247772216797e+00) (9, -2.57429766654968261719e+00) (10, 8.52930641174316406250e+00) (11, 1.05631172657012939453e+00) (12, 2.15381479263305664062e+00) (13, -8.64682865142822265625e+00) (5, -7.73300528526306152344e-01) (6, -1.17584252357482910156e+00) (7, -7.69192934036254882812e-01) (8, -5.37041485309600830078e-01) (9, -2.23031491041183471680e-01) (10, -7.23252713680267333984e-01) (11, -8.26239943504333496094e-01) (12, -1.27665195465087890625e+01) (13, 4.67241287231445312500e+00) (5, -7.36169338226318359375e-01) (6, -8.58664989471435546875e-01) (7, -8.28869700431823730469e-01) (8, -3.96905755996704101562e+00) (9, -2.12006926536560058594e+00) (10, -7.48164713382720947266e-01) (11, -7.15274095535278320312e-01) (12, -5.58972396850585937500e+01) (13, 3.31495523452758789062e+00) (5, 3.80763316154479980469e+00) (6, 5.34130191802978515625e+00) (7, 1.46691455841064453125e+01) (8, -5.31434714794158935547e-01) (9, -6.67678833007812500000e+00) (10, 1.22753391265869140625e+01) (11, 4.76361703872680664062e+00) (12, 4.30406494140625000000e+01) (13, -7.83213520050048828125e+00) (5, 3.20141822099685668945e-01) (6, 7.98918724060058593750e+00) (7, 6.26825511455535888672e-01) (8, 1.13812136650085449219e+00) (9, 1.07008562088012695312e+01) (10, 4.84072655439376831055e-01) (11, 4.14162248373031616211e-01) (12, 1.23938789367675781250e+01) (13, -4.51152372360229492188e+00) (5, 9.79972183704376220703e-01) (6, 6.69406557083129882812e+00) (7, 3.13317751884460449219e+00) (8, -1.01455521583557128906e+00) (9, -3.01447796821594238281e+00) (10, 9.26708698272705078125e-01) (11, 9.80787575244903564453e-01) (12, 1.00093936920166015625e+00) (13, -5.77458000183105468750e+00) (5, -2.62530326843261718750e+00) (6, -4.23431968688964843750e+00) (7, -3.43435311317443847656e+00) (8, -4.37519721984863281250e+01) (9, -1.17354803085327148438e+01) (10, -4.16883945465087890625e+00) (11, -2.60541081428527832031e+00) (12, -8.57128540039062500000e+02) (13, -1.40527653694152832031e+00) (5, 4.29724097251892089844e-01) (6, 6.12589359283447265625e+00) (7, 8.49836528301239013672e-01) (8, 1.48591518402099609375e-01) (9, -3.26067447662353515625e-01) (10, 6.03591561317443847656e-01) (11, 5.58964371681213378906e-01) (12, 7.09501028060913085938e-01) (13, -4.96489048004150390625e+00) (14, -8.76804813742637634277e-02) (15, -1.39338326454162597656e+00) (16, -1.27453869628906250000e+03) (17, -1.67569473385810852051e-01) (18, -1.45646646618843078613e-01) (19, -2.38426491618156433105e-01) (20, -1.50000000000000000000e+03) (21, -2.40536600351333618164e-01) (22, -1.99365422129631042480e-01) (14, 9.75282043218612670898e-02) (15, -5.72535943984985351562e+00) (16, -1.50000000000000000000e+03) (17, 6.80598020553588867188e-02) (18, 4.92993086576461791992e-01) (19, -7.66935348510742187500e-02) (20, -1.50000000000000000000e+03) (21, 7.54259154200553894043e-02) (22, 5.20317107439041137695e-02) (14, 4.34464693069458007812e-01) (15, -2.40846097469329833984e-01) (16, -5.47554206848144531250e+00) (17, 4.15866643190383911133e-01) (18, 3.82055819034576416016e-01) (19, 3.01610469818115234375e-01) (20, -1.50000000000000000000e+03) (21, 3.01097631454467773438e-01) (22, 1.73246696591377258301e-01) (14, 1.63186585903167724609e+00) (15, -1.71768033504486083984e+00) (16, -9.59770393371582031250e+00) (17, 1.65370392799377441406e+00) (18, 1.53034353256225585938e+00) (19, 8.74298393726348876953e-01) (20, -1.50000000000000000000e+03) (21, 8.52054774761199951172e-01) (22, 1.40249550342559814453e-01) (14, 7.60640084743499755859e-01) (15, -1.82376623153686523438e-01) (16, -1.69867439270019531250e+01) (17, 8.31855535507202148438e-01) (18, 5.99097967147827148438e-01) (19, 8.47227990627288818359e-01) (20, -1.06580004882812500000e+03) (21, 6.23679041862487792969e-01) (22, 3.80192428827285766602e-01) (14, 3.27567607164382934570e-01) (15, -2.74828362464904785156e+00) (16, -1.76021146774291992188e+00) (17, 3.15304547548294067383e-01) (18, 2.27453365921974182129e-01) (19, 3.53474587202072143555e-01) (20, -1.50000000000000000000e+03) (21, 2.58589237928390502930e-01) (22, 1.05123437941074371338e-01) (14, 4.18812453746795654297e-01) (15, 3.81815361976623535156e+00) (16, 1.50000000000000000000e+03) (17, 3.25813084840774536133e-01) (18, 3.74903619289398193359e-01) (19, 4.87978458404541015625e-01) (20, 1.50000000000000000000e+03) (21, 4.01709407567977905273e-01) (22, 1.20907759666442871094e+00) (14, -3.60420010983943939209e-02) (15, 1.86992228031158447266e+00) (16, 4.71263599395751953125e+00) (17, -2.41045668721199035645e-01) (18, -7.10282862186431884766e-01) (19, -9.73463207483291625977e-02) (20, 1.50000000000000000000e+03) (21, -1.56638801097869873047e-01) (22, 8.25790595263242721558e-03) (23, -3.76716136932373046875e-01) (24, 3.83235573768615722656e-01) (25, 3.77442747354507446289e-01) (26, 5.28582453727722167969e-01) (27, 1.89497888088226318359e-01) (28, 5.22521615028381347656e-01) (29, -3.46422851085662841797e-01) (30, -1.49308848381042480469e+00) (31, -1.04940749704837799072e-01) (23, 3.39255642890930175781e+00) (24, -2.35308900475502014160e-01) (25, -1.23362638056278228760e-01) (26, -1.36605292558670043945e-01) (27, -3.59971702098846435547e-01) (28, -1.10014760494232177734e+00) (29, -5.03432154655456542969e-01) (30, -3.76043170690536499023e-01) (31, -5.09215772151947021484e-01) (23, -1.77728712558746337891e-01) (24, -1.14845693111419677734e+00) (25, -2.73000419139862060547e-01) (26, -2.69417226314544677734e-01) (27, -2.17211306095123291016e-01) (28, -7.90651381015777587891e-01) (29, -1.36730140075087547302e-02) (30, 7.67463743686676025391e-01) (31, 3.40486258268356323242e-01) 
